digraph Tree {
node [shape=box] ;
0 [label="X[4] <= -19.5353\ngini = 0.75\nsamples = 80\nvalue = [20, 20, 20, 20]"] ;
1 [label="X[3] <= 16.7561\ngini = 0.5\nsamples = 40\nvalue = [0, 20, 0, 20]"] ;
0 -> 1 [labeldistance=2.5, labelangle=45, headlabel="True"] ;
2 [label="gini = 0.0\nsamples = 20\nvalue = [0, 0, 0, 20]"] ;
1 -> 2 ;
3 [label="gini = 0.0\nsamples = 20\nvalue = [0, 20, 0, 0]"] ;
1 -> 3 ;
4 [label="X[3] <= 24.2342\ngini = 0.5\nsamples = 40\nvalue = [20, 0, 20, 0]"] ;
0 -> 4 [labeldistance=2.5, labelangle=-45, headlabel="False"] ;
5 [label="X[4] <= -10.8581\ngini = 0.0907\nsamples = 21\nvalue = [1, 0, 20, 0]"] ;
4 -> 5 ;
6 [label="gini = 0.0\nsamples = 17\nvalue = [0, 0, 17, 0]"] ;
5 -> 6 ;
7 [label="X[4] <= -10.7873\ngini = 0.375\nsamples = 4\nvalue = [1, 0, 3, 0]"] ;
5 -> 7 ;
8 [label="gini = 0.0\nsamples = 1\nvalue = [1, 0, 0, 0]"] ;
7 -> 8 ;
9 [label="gini = 0.0\nsamples = 3\nvalue = [0, 0, 3, 0]"] ;
7 -> 9 ;
10 [label="gini = 0.0\nsamples = 19\nvalue = [19, 0, 0, 0]"] ;
4 -> 10 ;
}