digraph Tree {
node [shape=box] ;
0 [label="X[7] <= -19.5353\ngini = 0.7476\nsamples = 64\nvalue = [18, 15, 14, 17]"] ;
1 [label="X[6] <= 16.8996\ngini = 0.498\nsamples = 32\nvalue = [0, 15, 0, 17]"] ;
0 -> 1 [labeldistance=2.5, labelangle=45, headlabel="True"] ;
2 [label="gini = 0.0\nsamples = 17\nvalue = [0, 0, 0, 17]"] ;
1 -> 2 ;
3 [label="gini = 0.0\nsamples = 15\nvalue = [0, 15, 0, 0]"] ;
1 -> 3 ;
4 [label="X[6] <= 24.2342\ngini = 0.4922\nsamples = 32\nvalue = [18, 0, 14, 0]"] ;
0 -> 4 [labeldistance=2.5, labelangle=-45, headlabel="False"] ;
5 [label="X[0] <= 0.4483\ngini = 0.1244\nsamples = 15\nvalue = [1, 0, 14, 0]"] ;
4 -> 5 ;
6 [label="X[11] <= 0.7595\ngini = 0.5\nsamples = 2\nvalue = [1, 0, 1, 0]"] ;
5 -> 6 ;
7 [label="gini = 0.0\nsamples = 1\nvalue = [0, 0, 1, 0]"] ;
6 -> 7 ;
8 [label="gini = 0.0\nsamples = 1\nvalue = [1, 0, 0, 0]"] ;
6 -> 8 ;
9 [label="gini = 0.0\nsamples = 13\nvalue = [0, 0, 13, 0]"] ;
5 -> 9 ;
10 [label="gini = 0.0\nsamples = 17\nvalue = [17, 0, 0, 0]"] ;
4 -> 10 ;
}