digraph Tree {
node [shape=box] ;
0 [label="X[3] <= 15.9556\ngini = 0.7261\nsamples = 40\nvalue = [16, 19, 8, 21]"] ;
1 [label="gini = 0.0\nsamples = 14\nvalue = [0, 0, 0, 21]"] ;
0 -> 1 [labeldistance=2.5, labelangle=45, headlabel="True"] ;
2 [label="X[2] <= 2.5\ngini = 0.6317\nsamples = 26\nvalue = [16, 19, 8, 0]"] ;
0 -> 2 [labeldistance=2.5, labelangle=-45, headlabel="False"] ;
3 [label="X[1] <= -20.7667\ngini = 0.2975\nsamples = 6\nvalue = [2, 9, 0, 0]"] ;
2 -> 3 ;
4 [label="X[3] <= 29.4935\ngini = 0.48\nsamples = 3\nvalue = [2, 3, 0, 0]"] ;
3 -> 4 ;
5 [label="gini = 0.0\nsamples = 2\nvalue = [0, 3, 0, 0]"] ;
4 -> 5 ;
6 [label="gini = 0.0\nsamples = 1\nvalue = [2, 0, 0, 0]"] ;
4 -> 6 ;
7 [label="gini = 0.0\nsamples = 3\nvalue = [0, 6, 0, 0]"] ;
3 -> 7 ;
8 [label="X[3] <= 24.7391\ngini = 0.6484\nsamples = 20\nvalue = [14, 10, 8, 0]"] ;
2 -> 8 ;
9 [label="X[1] <= -12.6855\ngini = 0.4938\nsamples = 12\nvalue = [0, 10, 8, 0]"] ;
8 -> 9 ;
10 [label="gini = 0.0\nsamples = 7\nvalue = [0, 10, 0, 0]"] ;
9 -> 10 ;
11 [label="gini = 0.0\nsamples = 5\nvalue = [0, 0, 8, 0]"] ;
9 -> 11 ;
12 [label="gini = 0.0\nsamples = 8\nvalue = [14, 0, 0, 0]"] ;
8 -> 12 ;
}